digraph Tree {
node [shape=box, style="filled, rounded", color="black", fontname=helvetica] ;
edge [fontname=helvetica] ;
0 [label="petal width (cm) <= 0.8\ngini = 0.66\nsamples = 96\nvalue = [41, 59, 50]\nclass = versicolor", fillcolor="#edfdf4"] ;
1 [label="gini = 0.0\nsamples = 26\nvalue = [41, 0, 0]\nclass = setosa", fillcolor="#e58139"] ;
0 -> 1 [labeldistance=2.5, labelangle=45, headlabel="True"] ;
2 [label="sepal length (cm) <= 7.1\ngini = 0.5\nsamples = 70\nvalue = [0, 59, 50]\nclass = versicolor", fillcolor="#e1fbec"] ;
0 -> 2 [labeldistance=2.5, labelangle=-45, headlabel="False"] ;
3 [label="sepal length (cm) <= 5.75\ngini = 0.48\nsamples = 61\nvalue = [0, 59, 39]\nclass = versicolor", fillcolor="#bcf6d4"] ;
2 -> 3 ;
4 [label="petal length (cm) <= 4.7\ngini = 0.23\nsamples = 17\nvalue = [0, 20, 3]\nclass = versicolor", fillcolor="#57e994"] ;
3 -> 4 ;
5 [label="gini = 0.0\nsamples = 15\nvalue = [0, 20, 0]\nclass = versicolor", fillcolor="#39e581"] ;
4 -> 5 ;
6 [label="gini = 0.0\nsamples = 2\nvalue = [0, 0, 3]\nclass = virginica", fillcolor="#8139e5"] ;
4 -> 6 ;
7 [label="petal length (cm) <= 4.95\ngini = 0.5\nsamples = 44\nvalue = [0, 39, 36]\nclass = versicolor", fillcolor="#f0fdf5"] ;
3 -> 7 ;
8 [label="sepal width (cm) <= 2.85\ngini = 0.09\nsamples = 22\nvalue = [0, 38, 2]\nclass = versicolor", fillcolor="#43e688"] ;
7 -> 8 ;
9 [label="petal length (cm) <= 4.75\ngini = 0.22\nsamples = 9\nvalue = [0, 14, 2]\nclass = versicolor", fillcolor="#55e993"] ;
8 -> 9 ;
10 [label="gini = 0.0\nsamples = 6\nvalue = [0, 11, 0]\nclass = versicolor", fillcolor="#39e581"] ;
9 -> 10 ;
11 [label="sepal width (cm) <= 2.65\ngini = 0.48\nsamples = 3\nvalue = [0, 3, 2]\nclass = versicolor", fillcolor="#bdf6d5"] ;
9 -> 11 ;
12 [label="gini = 0.0\nsamples = 1\nvalue = [0, 1, 0]\nclass = versicolor", fillcolor="#39e581"] ;
11 -> 12 ;
13 [label="sepal length (cm) <= 6.5\ngini = 0.5\nsamples = 2\nvalue = [0, 2, 2]\nclass = versicolor", fillcolor="#ffffff"] ;
11 -> 13 ;
14 [label="gini = 0.0\nsamples = 1\nvalue = [0, 0, 2]\nclass = virginica", fillcolor="#8139e5"] ;
13 -> 14 ;
15 [label="gini = 0.0\nsamples = 1\nvalue = [0, 2, 0]\nclass = versicolor", fillcolor="#39e581"] ;
13 -> 15 ;
16 [label="gini = 0.0\nsamples = 13\nvalue = [0, 24, 0]\nclass = versicolor", fillcolor="#39e581"] ;
8 -> 16 ;
17 [label="sepal length (cm) <= 6.6\ngini = 0.06\nsamples = 22\nvalue = [0, 1, 34]\nclass = virginica", fillcolor="#853fe6"] ;
7 -> 17 ;
18 [label="gini = 0.0\nsamples = 16\nvalue = [0, 0, 26]\nclass = virginica", fillcolor="#8139e5"] ;
17 -> 18 ;
19 [label="petal length (cm) <= 5.05\ngini = 0.2\nsamples = 6\nvalue = [0, 1, 8]\nclass = virginica", fillcolor="#9152e8"] ;
17 -> 19 ;
20 [label="gini = 0.0\nsamples = 1\nvalue = [0, 1, 0]\nclass = versicolor", fillcolor="#39e581"] ;
19 -> 20 ;
21 [label="gini = 0.0\nsamples = 5\nvalue = [0, 0, 8]\nclass = virginica", fillcolor="#8139e5"] ;
19 -> 21 ;
22 [label="gini = 0.0\nsamples = 9\nvalue = [0, 0, 11]\nclass = virginica", fillcolor="#8139e5"] ;
2 -> 22 ;
}